<?xml version="1.0"?>
<opencv_storage>
<stage4>
  <maxWeakCount>9</maxWeakCount>
  <stageThreshold>-1.0880903005599976e+00</stageThreshold>
  <weakClassifiers>
    <_>
      <internalNodes>
        0 -1 42700 -6.5820544958114624e-02</internalNodes>
      <leafValues>
        6.3958460092544556e-01 -4.0208575129508972e-01</leafValues></_>
    <_>
      <internalNodes>
        0 -1 63535 2.7538519352674484e-03</internalNodes>
      <leafValues>
        -6.9164001941680908e-01 3.4132444858551025e-01</leafValues></_>
    <_>
      <internalNodes>
        0 -1 72100 -1.1620906181633472e-02</internalNodes>
      <leafValues>
        -8.5150831937789917e-01 2.0183847844600677e-01</leafValues></_>
    <_>
      <internalNodes>
        0 -1 61445 -1.0659215040504932e-03</internalNodes>
      <leafValues>
        2.1611218154430389e-01 -7.2566056251525879e-01</leafValues></_>
    <_>
      <internalNodes>
        0 -1 64409 -1.7051252070814371e-03</internalNodes>
      <leafValues>
        2.3233613371849060e-01 -6.9517368078231812e-01</leafValues></_>
    <_>
      <internalNodes>
        0 -1 69868 4.8017315566539764e-03</internalNodes>
      <leafValues>
        -5.4814738035202026e-01 3.4373018145561218e-01</leafValues></_>
    <_>
      <internalNodes>
        0 -1 57394 1.8980522872880101e-04</internalNodes>
      <leafValues>
        1.9354401528835297e-01 -8.0674654245376587e-01</leafValues></_>
    <_>
      <internalNodes>
        0 -1 35437 -1.7499176319688559e-03</internalNodes>
      <leafValues>
        3.7204581499099731e-01 -3.7998414039611816e-01</leafValues></_>
    <_>
      <internalNodes>
        0 -1 48820 5.6234160438179970e-03</internalNodes>
      <leafValues>
        -4.8417991399765015e-01 3.5857912898063660e-01</leafValues></_></weakClassifiers></stage4>
</opencv_storage>
