<?xml version="1.0"?>
<opencv_storage>
<stage7>
  <maxWeakCount>11</maxWeakCount>
  <stageThreshold>-1.0809370279312134e+00</stageThreshold>
  <weakClassifiers>
    <_>
      <internalNodes>
        0 -1 48541 -5.9771002270281315e-04</internalNodes>
      <leafValues>
        4.5300751924514771e-01 -7.0967739820480347e-01</leafValues></_>
    <_>
      <internalNodes>
        0 -1 61656 -7.6248184777796268e-03</internalNodes>
      <leafValues>
        4.2800945043563843e-01 -4.4089743494987488e-01</leafValues></_>
    <_>
      <internalNodes>
        0 -1 25832 3.3753167837858200e-02</internalNodes>
      <leafValues>
        -2.6713192462921143e-01 5.9342145919799805e-01</leafValues></_>
    <_>
      <internalNodes>
        0 -1 78051 -6.6120149567723274e-03</internalNodes>
      <leafValues>
        5.1221626996994019e-01 -2.8528407216072083e-01</leafValues></_>
    <_>
      <internalNodes>
        0 -1 52934 -2.1348445443436503e-04</internalNodes>
      <leafValues>
        2.5675940513610840e-01 -4.7800591588020325e-01</leafValues></_>
    <_>
      <internalNodes>
        0 -1 60876 -3.5953705664724112e-03</internalNodes>
      <leafValues>
        1.6226579248905182e-01 -7.0191127061843872e-01</leafValues></_>
    <_>
      <internalNodes>
        0 -1 72273 -3.6800489760935307e-03</internalNodes>
      <leafValues>
        -6.7103517055511475e-01 2.0058722794055939e-01</leafValues></_>
    <_>
      <internalNodes>
        0 -1 63743 -2.9466966167092323e-02</internalNodes>
      <leafValues>
        -7.3714900016784668e-01 1.6877770423889160e-01</leafValues></_>
    <_>
      <internalNodes>
        0 -1 53316 -7.4664852581918240e-03</internalNodes>
      <leafValues>
        8.6724437773227692e-02 -8.8386207818984985e-01</leafValues></_>
    <_>
      <internalNodes>
        0 -1 74842 1.8607097445055842e-03</internalNodes>
      <leafValues>
        -3.5046821832656860e-01 3.6366930603981018e-01</leafValues></_>
    <_>
      <internalNodes>
        0 -1 72588 1.7869784496724606e-03</internalNodes>
      <leafValues>
        1.5505513548851013e-01 -7.7606451511383057e-01</leafValues></_></weakClassifiers></stage7>
</opencv_storage>
